{"loss": 0.23252511024475098, "epoch": 499, "_timestamp": 1695800999.961975, "_runtime": 387.2363510131836, "_step": 499, "gradients/out.weight": {"_type": "histogram", "values": [10.0, 1.0, 0.0, 0.0, 0.0, 0.0, 0.0, 0.0, 0.0, 0.0, 0.0, 0.0, 0.0, 0.0, 0.0, 0.0, 0.0, 0.0, 0.0, 0.0, 0.0, 0.0, 0.0, 0.0, 0.0, 0.0, 0.0, 0.0, 1.0, 0.0, 0.0, 0.0, 0.0, 0.0, 0.0, 0.0, 0.0, 0.0, 0.0, 0.0, 0.0, 0.0, 0.0, 0.0, 0.0, 0.0, 0.0, 0.0, 0.0, 0.0, 0.0, 0.0, 0.0, 0.0, 0.0, 0.0, 0.0, 0.0, 0.0, 0.0, 0.0, 0.0, 0.0, 4.0], "bins": [-2196951552.0, -2162424832.0, -2127898368.0, -2093371776.0, -2058845184.0, -2024318464.0, -1989791872.0, -1955265280.0, -1920738688.0, -1886212096.0, -1851685504.0, -1817158912.0, -1782632192.0, -1748105728.0, -1713579008.0, -1679052416.0, -1644525824.0, -1609999232.0, -1575472640.0, -1540945920.0, -1506419456.0, -1471892736.0, -1437366144.0, -1402839552.0, -1368312960.0, -1333786368.0, -1299259776.0, -1264733184.0, -1230206464.0, -1195680000.0, -1161153280.0, -1126626688.0, -1092099968.0, -1057573376.0, -1023046784.0, -988520128.0, -953993536.0, -919466944.0, -884940288.0, -850413696.0, -815887104.0, -781360512.0, -746833920.0, -712307264.0, -677780672.0, -643254080.0, -608727424.0, -574200832.0, -539674240.0, -505147680.0, -470621056.0, -436094432.0, -401567840.0, -367041248.0, -332514624.0, -297988000.0, -263461408.0, -228934800.0, -194408192.0, -159881584.0, -125354968.0, -90828360.0, -56301756.0, -21775148.0, 12751461.0]}, "gradients/out.bias": {"_type": "histogram", "values": [0.0, 0.0, 0.0, 0.0, 0.0, 0.0, 0.0, 0.0, 0.0, 0.0, 0.0, 0.0, 0.0, 0.0, 0.0, 0.0, 0.0, 0.0, 0.0, 0.0, 0.0, 0.0, 0.0, 0.0, 0.0, 0.0, 0.0, 0.0, 0.0, 0.0, 0.0, 0.0, 1.0, 0.0, 0.0, 0.0, 0.0, 0.0, 0.0, 0.0, 0.0, 0.0, 0.0, 0.0, 0.0, 0.0, 0.0, 0.0, 0.0, 0.0, 0.0, 0.0, 0.0, 0.0, 0.0, 0.0, 0.0, 0.0, 0.0, 0.0, 0.0, 0.0, 0.0, 0.0], "bins": [-119741.25, -119741.25, -119741.25, -119741.25, -119741.25, -119741.25, -119741.25, -119741.25, -119741.25, -119741.25, -119741.25, -119741.25, -119741.25, -119741.25, -119741.25, -119741.25, -119741.25, -119741.25, -119741.25, -119741.25, -119741.25, -119741.25, -119741.25, -119741.25, -119741.25, -119741.25, -119741.25, -119741.25, -119741.25, -119741.25, -119741.25, -119741.25, -119741.25, -119741.25, -119741.25, -119741.25, -119741.25, -119741.25, -119741.25, -119741.25, -119741.25, -119741.25, -119741.25, -119741.25, -119741.25, -119741.25, -119741.25, -119741.25, -119741.25, -119741.25, -119741.25, -119741.25, -119741.25, -119741.25, -119741.25, -119741.25, -119741.25, -119741.25, -119741.25, -119741.25, -119741.25, -119741.25, -119741.25, -119741.25, -119741.25]}, "gradients/layer2.weight": {"_type": "histogram", "values": [11.0, 0.0, 0.0, 0.0, 0.0, 0.0, 0.0, 0.0, 11.0, 11.0, 11.0, 11.0, 0.0, 0.0, 0.0, 11.0, 22.0, 0.0, 44.0, 22.0, 77.0, 110.0, 99.0, 121.0, 55.0, 44.0, 99.0, 92.0, 2992.0, 175.0, 8.0, 4.0, 7.0, 3.0, 5.0, 9.0, 5.0, 10.0, 6.0, 7.0, 2.0, 4.0, 0.0, 1.0, 1.0, 1.0, 0.0, 0.0, 0.0, 0.0, 1.0, 1.0, 1.0, 1.0, 0.0, 0.0, 0.0, 0.0, 0.0, 0.0, 0.0, 0.0, 0.0, 1.0], "bins": [-440588352.0, -425390432.0, -410192512.0, -394994592.0, -379796672.0, -364598752.0, -349400832.0, -334202912.0, -319004992.0, -303807040.0, -288609152.0, -273411200.0, -258213296.0, -243015376.0, -227817456.0, -212619536.0, -197421616.0, -182223696.0, -167025760.0, -151827840.0, -136629920.0, -121432000.0, -106234080.0, -91036160.0, -75838240.0, -60640320.0, -45442400.0, -30244480.0, -15046560.0, 151360.0, 15349280.0, 30547200.0, 45745120.0, 60943040.0, 76140960.0, 91338880.0, 106536800.0, 121734720.0, 136932640.0, 152130560.0, 167328480.0, 182526400.0, 197724320.0, 212922240.0, 228120160.0, 243318080.0, 258516000.0, 273713920.0, 288911872.0, 304109760.0, 319307712.0, 334505600.0, 349703552.0, 364901440.0, 380099392.0, 395297280.0, 410495232.0, 425693152.0, 440891072.0, 456088992.0, 471286912.0, 486484832.0, 501682752.0, 516880672.0, 532078592.0]}, "gradients/layer2.bias": {"_type": "histogram", "values": [11.0, 0.0, 0.0, 0.0, 0.0, 0.0, 0.0, 0.0, 0.0, 0.0, 0.0, 0.0, 0.0, 0.0, 0.0, 0.0, 0.0, 0.0, 0.0, 0.0, 0.0, 0.0, 0.0, 0.0, 0.0, 1.0, 0.0, 0.0, 3.0, 0.0, 0.0, 0.0, 0.0, 0.0, 0.0, 0.0, 0.0, 0.0, 0.0, 0.0, 0.0, 0.0, 0.0, 0.0, 0.0, 0.0, 0.0, 0.0, 0.0, 0.0, 0.0, 0.0, 0.0, 0.0, 0.0, 0.0, 0.0, 0.0, 0.0, 0.0, 0.0, 0.0, 0.0, 1.0], "bins": [-3060765.0, -2955185.0, -2849605.25, -2744025.25, -2638445.5, -2532865.5, -2427285.5, -2321705.75, -2216126.0, -2110546.0, -2004966.125, -1899386.25, -1793806.25, -1688226.375, -1582646.5, -1477066.625, -1371486.75, -1265906.875, -1160327.0, -1054747.125, -949167.25, -843587.25, -738007.5, -632427.5, -526847.5, -421267.75, -315687.75, -210108.0, -104528.0, 1051.75, 106631.75, 212211.5, 317791.5, 423371.5, 528951.25, 634531.25, 740111.0, 845691.0, 951270.75, 1056850.75, 1162430.5, 1268010.5, 1373590.5, 1479170.25, 1584750.25, 1690330.125, 1795910.0, 1901489.875, 2007069.75, 2112649.5, 2218229.5, 2323809.5, 2429389.25, 2534969.25, 2640549.0, 2746129.0, 2851709.0, 2957288.75, 3062868.5, 3168448.5, 3274028.5, 3379608.25, 3485188.25, 3590768.0, 3696348.0]}, "gradients/layer1.weight": {"_type": "histogram", "values": [1.0, 1.0, 0.0, 1.0, 1.0, 2.0, 0.0, 1.0, 0.0, 0.0, 0.0, 1.0, 1.0, 2.0, 1.0, 3.0, 0.0, 2.0, 2.0, 3.0, 2.0, 1.0, 3.0, 3.0, 0.0, 1.0, 1.0, 2.0, 3.0, 3.0, 3.0, 1.0, 2.0, 4.0, 3.0, 3.0, 4.0, 2.0, 1.0, 3.0, 3.0, 10.0, 9.0, 14.0, 22.0, 11.0, 33.0, 44.0, 95.0, 110.0, 100.0, 118.0, 246.0, 268.0, 503.0, 1318.0, 117281.0, 38.0, 19.0, 2.0, 6.0, 2.0, 0.0, 1.0], "bins": [-3931523328.0, -3861429248.0, -3791334912.0, -3721240832.0, -3651146496.0, -3581052416.0, -3510958080.0, -3440864000.0, -3370769920.0, -3300675584.0, -3230581504.0, -3160487424.0, -3090393088.0, -3020299008.0, -2950204672.0, -2880110592.0, -2810016256.0, -2739922176.0, -2669828096.0, -2599733760.0, -2529639680.0, -2459545600.0, -2389451264.0, -2319356928.0, -2249262848.0, -2179168768.0, -2109074560.0, -2038980352.0, -1968886144.0, -1898791936.0, -1828697856.0, -1758603520.0, -1688509696.0, -1618415616.0, -1548321280.0, -1478227200.0, -1408132864.0, -1338038784.0, -1267944448.0, -1197850368.0, -1127756288.0, -1057662016.0, -987567808.0, -917473600.0, -847379392.0, -777285184.0, -707191104.0, -637096896.0, -567002688.0, -496908480.0, -426814336.0, -356720128.0, -286625984.0, -216531776.0, -146437568.0, -76343424.0, -6249216.0, 63844960.0, 133939136.0, 204033344.0, 274127520.0, 344221696.0, 414315904.0, 484410080.0, 554504256.0]}, "gradients/layer1.bias": {"_type": "histogram", "values": [1.0, 0.0, 0.0, 0.0, 0.0, 0.0, 0.0, 0.0, 0.0, 0.0, 0.0, 0.0, 1.0, 0.0, 0.0, 0.0, 1.0, 0.0, 0.0, 1.0, 0.0, 0.0, 1.0, 1.0, 0.0, 0.0, 0.0, 0.0, 0.0, 0.0, 0.0, 1.0, 0.0, 0.0, 0.0, 0.0, 0.0, 0.0, 0.0, 0.0, 0.0, 0.0, 0.0, 0.0, 0.0, 3.0, 0.0, 3.0, 2.0, 7.0, 5.0, 21.0, 9.0, 9.0, 7.0, 16.0, 21.0, 33.0, 11.0, 96.0, 3.0, 1.0, 1.0, 1.0], "bins": [-1437090048.0, -1412929024.0, -1388768000.0, -1364607104.0, -1340446080.0, -1316285056.0, -1292124160.0, -1267963136.0, -1243802112.0, -1219641088.0, -1195480064.0, -1171319168.0, -1147158144.0, -1122997120.0, -1098836224.0, -1074675200.0, -1050514176.0, -1026353152.0, -1002192192.0, -978031232.0, -953870208.0, -929709184.0, -905548224.0, -881387264.0, -857226240.0, -833065216.0, -808904256.0, -784743296.0, -760582272.0, -736421248.0, -712260288.0, -688099328.0, -663938304.0, -639777280.0, -615616320.0, -591455360.0, -567294336.0, -543133312.0, -518972320.0, -494811360.0, -470650336.0, -446489312.0, -422328352.0, -398167360.0, -374006368.0, -349845376.0, -325684384.0, -301523392.0, -277362400.0, -253201408.0, -229040416.0, -204879424.0, -180718432.0, -156557440.0, -132396456.0, -108235464.0, -84074472.0, -59913480.0, -35752488.0, -11591496.0, 12569496.0, 36730488.0, 60891480.0, 85052472.0, 109213464.0]}, "_wandb": {"runtime": 385}}